GAME 5 ---------------------------------------SELF.WEIGHTS: [[[0.3283146894026482, 0.2238538743194306, 0.22066522492192603, -0.39994090601676135, -0.8044949734536692, 0.5576672067166393, -1.0553148282178575, 0.3354960594505777, -0.2685544187643535, 0.4599907533591392, 0.455755082669681, -0.902937871706396], [-1.1058432523530597, -0.83261708321885, 0.3225739506861749, -0.4864040991889224, 0.6931731060787867, -0.940915788497805, 0.6018994290117199, 0.5320024665795082, -0.6823476994285719, -0.7076865943818427, -0.522690695666582, 0.5218154492235174], [0.6868786490105596, 0.582587235794428, -0.3979356686983843, -0.2912225920127051, 0.9883614593976073, 0.29074527991607374, 0.06981285049529032, -0.5821826134950852, -0.13011882003927105, 0.7566610625907262, 0.10071753199067053, 0.906829153791733], [-8.124960335262205, -8.82504066496205, -8.840309949374625, -8.44790790750084, -7.5258943769433655, -8.708998362740392, -7.2120359328174635, -7.986655769443204, -6.930088184046489, -7.370541428403883, -6.974809007283738, -7.376700617603825], [0.012263037192557674, -0.5465687156155548, -0.34761405648987986, 0.585668502725537, -0.26028391105266135, 1.1277378661075221, 1.176633428968178, 0.3079290053333066, 0.8287249530877865, -0.27182646638166075, 0.6228759748227515, -0.6852295643859638], [-0.6809687276832954, 0.5581050656531403, 0.8334854016572948, 0.7097037514502258, 0.19859365723706246, 0.11488747538322966, 0.43660540856506697, -0.5904020780911186, -0.526259493603549, 0.23140401844594155, -0.11302868573633162, -0.3758373263099564], [1.0509550573977808, 0.9935475046269716, -0.5321913219297582, 0.8400827534056188, 1.0056816979459704, 0.1616586431867777, -0.0714642290730356, 1.0333914640978348, 1.3409620532351594, -0.028818419811910263, 0.4791175297529779, -0.5273833404398073], [1.2381133978326078, 1.614182413450609, 0.5802753517975459, 1.2185943640802541, 0.18231928140162415, -0.03258954771325014, 0.6737729140270585, 0.9830101915174692, 1.169793050017044, 1.6095846645937726, 0.797366090325774, 1.4312547018203772], [-5.021227772316142, -5.214541866419373, -4.3387970269054, -5.3017309573837865, -4.666944592001454, -5.4907287961986, -5.848391929629458, -4.356261682319343, -6.095934053772657, -5.563834121460689, -5.557126101518004, -5.596870571157415], [0.07477326987370547, -0.3743020495413146, 0.15132279500151358, 0.4670957469738432, -0.667782010735983, 0.4878251378570235, -0.3244821420425778, 0.35092169962484937, -0.6463420253644568, -0.557799758302709, -0.3657601058112176, -0.1471177502223237], [1.1947840880084295, 0.6981782783173237, 1.5678797138068632, 1.1075587647400778, 1.8856806751851096, 1.5607807595663112, 0.6982772157079368, 0.64585705777049, 1.5863386375281874, 1.353481957840547, 1.1834927487067064, 0.018790296495827422], [0.15528043221211627, 0.15458010328491614, -0.08400541903701346, -1.1582670175690675, 0.5454220094916264, -1.107474913975834, -0.024054132719895118, 0.5970782534325692, -0.6010846602885296, 0.689250194682711, -0.8872923332725253, 0.11078453734020895]], [[0.6533401283595017, 0.975094940323762, 0.3157583663820032, -0.40993141685806495, 1.1400866634131748, 1.1907887777273545, -0.46594530435008213], [0.768628721260974, 0.9636209500955178, 0.6529582736696039, 0.999594931519761, 0.11020448983873592, -0.44039988958234466, -0.8398159018227395], [2.7440866737838445, 3.09564923460349, 1.2775675552027286, 3.1258111349579054, 1.5993205610813876, 1.5578220060481938, 3.076339643455459], [0.013087999816638678, -0.8961577536536189, -0.6033536249772853, 0.47146544343900165, 0.3613546843768941, -0.03523563532534993, -0.4751865553662741], [0.03823869469610597, -1.032337461314523, -1.0134235111350347, -0.17952126810899022, -1.0450933001327023, -0.5193193035527237, -0.0019212241025960309], [-6.100249606276552, -5.729865352722998, -5.392808772111774, -4.351139917191554, -4.61759601792455, -4.979669049242034, -5.141221313885829], [1.1222148422841915, 0.31792814281564863, 0.12652402448642713, 0.9837713748285217, -0.44598378790138116, -0.10910790686265974, 1.1063423101968841], [-0.3658368584777645, -0.8511452245795783, -0.7012870010866736, 0.3967291160012887, 0.7646366753953173, 0.3933296496215537, -0.4451792735672515], [-0.8445728114228512, 0.40332545151109755, 0.059307241489034324, 0.41966559506370427, 0.03451468659372803, 0.8150341986997343, 0.9913715847836102], [-0.8171695750312677, 0.5002257579426859, -0.5098519032678126, 0.8807097143434739, 0.05046954972542794, -0.01382586700231725, -0.34977110962461566], [0.4705467413618756, -0.7107759161961789, 0.017159114923003926, -0.6376431915625529, 0.8370341225406441, -0.7412593845663287, -0.10470674094735344], [0.6852998454843551, -0.3072985527117795, 0.4003446313951975, -0.5581635394900977, 0.6154707504705874, -0.6118237106189688, 0.8640135364473076]], [[-0.23990194944835203, -0.6447526578066248, -0.5027077947108145, -0.16221799960634187], [0.14330268812342006, -0.7722522705333035, 0.7584965001064039, 0.8852546055188162], [-0.27450622652315104, -0.7463169727619476, 0.6495144628340743, 0.8702932271715322], [-0.0194846284332173, 0.7232351360913221, 0.7825115517269847, 0.5552228811305207], [0.39572721263132227, 0.6865594661235448, -0.125706412780362, 0.32297488559181886], [0.22673553270346147, -0.07073172870325273, -0.16505869245312477, 0.049073030221578495], [0.5176060281908104, 0.22693292807895538, -0.5944588977863587, 0.8796857179655355]], [[0.38370834978249646], [0.5886262118203718], [0.4093553092355906], [-0.3343851480282818]]]SELF.BIAS_AND_WEIGHTS: [[[1, -0.4840590832083106], [1, -0.5183943741495216], [1, 1.1536243148229537], [1, -7.434896688205954], [1, -0.21422224395135878], [1, 0.06364842021023716], [1, 0.8677848692007015], [1, 0.30456074331390715], [1, -4.413705428213027], [1, -1.3054410763661701], [1, 0.46877148491861564], [1, -0.7100391921090501]], [[1, -0.4243106879279372], [1, 0.6650482427828294], [1, 2.194401267252563], [1, -0.9553832296443177], [1, 0.24485613547913587], [1, -6.105644855752653], [1, 0.42973674485449953]], [[1, -0.23111726016491857], [1, 0.6663290184234216], [1, 0.32527984594110926], [1, -0.10231188598512486]], [[1, 0.08437092880202535]]]